svm_type c_svc
kernel_type rbf
gamma 0.2
nr_class 2
total_sv 148
rho -14.0694
label 1 0
probA -0.685966
probB -0.0911924
nr_sv 77 71
SV
500 1:0.1875 2:0.5 3:0.21629214 4:2 5:0.030673297 
500 1:0.3125 2:0.533333 3:0.44808555 4:3 5:0.085026378 
345.796104419845 1:0.1875 2:0.166667 3:0.019851852 4:3 5:0.17623184 
500 1:0.3125 2:0.7 3:0.55015552 4:2 5:0.060013447 
500 1:0.25 2:0.5 3:0.55173792 4:3 5:0.14570703 
500 1:0.25 2:0.633333 3:0.53779125 4:3 5:0.20374013 
500 1:0.25 2:0.566667 3:0.5908316 4:3 5:0.20374013 
500 1:0.375 2:0.5 3:0.32362822 4:3 5:0.11516784 
255.3332920042521 1:0.375 2:0.4 3:0.40052258 4:3 5:0.11516784 
500 1:0.3125 2:0.666667 3:0.53154162 4:3 5:0.11516784 
500 1:0.125 2:0.466667 3:0.022653722 4:2 5:0.010620962 
500 1:0.25 2:0.366667 3:0.59542587 4:2 5:0.032326181 
500 1:0.125 2:0.433333 3:0.875 4:2 5:0.034647024 
500 1:0.1875 2:0.333333 3:0.19624278 4:3 5:0.20908852 
500 1:0.1875 2:0.533333 3:0.46069364 4:3 5:0.20908852 
273.1834008509965 1:0.1875 2:0.433333 3:0.21052632 4:3 5:0.019341204 
500 1:0.125 2:0.5 3:0.11374408 4:3 5:0.036490967 
500 1:0.1875 2:0.5 3:0.16666667 4:2 5:0.024195152 
500 1:0.125 2:0.733333 3:0.092253521 4:3 5:0.11351067 
484.9820170078091 1:0.1875 2:0.433333 3:0.82902137 4:2 5:0.026084563 
500 1:0.3125 2:0.566667 3:0.041970803 4:3 5:0.054613324 
224.5797746535688 1:0.0625 2:0.3 3:0.66071429 4:2 5:0.01412878 
391.5696227760155 1:0.25 2:0.833333 3:0.88487973 4:3 5:0.068732686 
500 1:0.1875 2:0.433333 3:0.88418635 4:2 5:0.067109067 
500 1:0.3125 2:0.733333 3:0.24280721 4:3 5:0.13999423 
500 1:0.25 2:0.7 3:0.67625706 4:3 5:0.13999423 
500 1:0.25 2:0.666667 3:0.37127988 4:2 5:0.083999621 
500 1:0.3125 2:0.533333 3:0.42787445 4:2 5:0.083999621 
500 1:0.1875 2:0.566667 3:0.41122449 4:3 5:0.1731861 
500 1:0.1875 2:0.566667 3:0.90795918 4:3 5:0.1731861 
500 1:0.25 2:0.6 3:0.73438735 4:3 5:0.098932939 
500 1:0.25 2:0.433333 3:0.57204169 4:1 5:0.042105328 
23.00424280310333 1:0.25 2:0.466667 3:0.074459975 4:1 5:0.097051675 
31.96926355996236 1:0.3125 2:0.766667 3:0.6772009 4:1 5:0.012627846 
500 1:0.3125 2:0.666667 3:0.8068489 4:1 5:0.038146126 
233.4819787324591 1:0.1875 2:0.4 3:0.3266301 4:1 5:0.04936788 
165.253419648327 1:0.0625 2:0.633333 3:0.56477073 4:1 5:0.10691219 
500 1:0.1875 2:0.6 3:0.33185841 4:3 5:0.010569106 
500 1:0.1875 2:0.733333 3:0.77645727 4:2 5:0.039570165 
500 1:0.125 2:0.6 3:0.043189369 4:3 5:0.094854859 
500 1:0.125 2:0.666667 3:0.32491694 4:3 5:0.094854859 
500 1:0.1875 2:0.633333 3:0.81352718 4:3 5:0.20377566 
500 1:0.1875 2:0.666667 3:0.82711757 4:3 5:0.20377566 
500 1:0.1875 2:0.6 3:0.83027813 4:3 5:0.20377566 
500 1:0.1875 2:0.333333 3:0.80603015 4:2 5:0.066244716 
500 1:0.266667 2:0.533333 3:0.54237288 4:2 5:0.03465945 
500 1:0.25 2:0.533333 3:0.71779661 4:2 5:0.03465945 
500 1:0.25 2:0.566667 3:0.18677686 4:2 5:0.018863643 
182.9158839886207 1:0.25 2:0.266667 3:0.61034483 4:2 5:0.031340107 
500 1:0.1875 2:0.533333 3:0.33068017 4:3 5:0.08739582 
500 1:0.2 2:0.566667 3:0.76929825 4:2 5:0.031340107 
500 1:0.1875 2:0.333333 3:0.016320475 4:3 5:0.11473413 
49.29938840035818 1:0.1875 2:0.466667 3:0.69476892 4:1 5:0.034821418 
500 1:0.25 2:0.5 3:0.31627907 4:3 5:0.042916977 
500 1:0.1875 2:0.466667 3:0.58539706 4:1 5:0.061782305 
500 1:0.25 2:0.6 3:0.31785481 4:2 5:0.044492728 
500 1:0.3125 2:0.6 3:0.58834516 4:2 5:0.054391632 
61.24919329769968 1:0.266667 2:0.733333 3:0.22572874 4:2 5:0.10004894 
500 1:0.1875 2:0.7 3:0.66429937 4:2 5:0.07799751 
500 1:0.1875 2:0.633333 3:0.71978752 4:2 5:0.035784572 
500 1:0.1875 2:0.366667 3:0.39593596 4:3 5:0.15871125 
500 1:0.1875 2:0.6 3:0.43099912 4:2 5:0.063497973 
500 1:0.25 2:0.466667 3:0.057825752 4:3 5:0.073583398 
500 1:0.1875 2:0.4 3:0.89822668 4:3 5:0.073583398 
500 1:0.1875 2:0.633333 3:0.33161512 4:2 5:0.053682921 
500 1:0.1875 2:0.733333 3:0.87462908 4:1 5:0.048368822 
500 1:0.3125 2:0.7 3:0.71726755 4:2 5:0.041122005 
500 1:0.125 2:0.633333 3:0.15950727 4:2 5:0.0847207 
500 1:0.125 2:0.666667 3:0.21257107 4:2 5:0.0847207 
500 1:0.125 2:0.666667 3:0.34270373 4:2 5:0.0847207 
375.0579521078045 1:0.25 2:0.4 3:0.54611399 4:3 5:0.079700844 
500 1:0.25 2:0.633333 3:0.48695303 4:3 5:0.092479679 
500 1:0.1875 2:0.533333 3:0.78000803 4:3 5:0.092479679 
500 1:0.125 2:0.3 3:0.62512614 4:3 5:0.16354361 
500 1:0.125 2:0.333333 3:0.74722502 4:3 5:0.16354361 
500 1:0.375 2:0.633333 3:0.37201946 4:3 5:0.1280376 
500 1:0.125 2:0.833333 3:0.66260472 4:3 5:0.089257453 
-500 1:0.25 2:0.633333 3:0.18991098 4:2 5:0.043801716 
-45.07574454645022 1:0.25 2:0.466667 3:0.2556701 4:4 5:0 
-500 1:0.1875 2:0.533333 3:0.16544118 4:2 5:0.034953291 
-500 1:0.1875 2:0.566667 3:0.31577982 4:2 5:0.057292993 
-500 1:0.25 2:0.6 3:0.28546099 4:2 5:0.036961043 
-500 1:0.25 2:0.6 3:0.28546099 4:3 5:0.087562554 
-500 1:0.25 2:0.6 3:0.28546099 4:3 5:0.087562554 
-500 1:0.25 2:0.5 3:0.23264137 4:3 5:0.11259288 
-500 1:0.294118 2:0.366667 3:0.17749196 4:3 5:0.11193564 
-389.0650641568425 1:0.25 2:0.533333 3:0.098088461 4:3 5:0.21529433 
-500 1:0.3125 2:0.8 3:0.5173772 4:3 5:0.13010687 
-417.3487141579378 1:0.25 2:0.6 3:0.90981432 4:3 5:0.27496786 
-500 1:0.3125 2:0.6 3:0.31883289 4:2 5:0.070494865 
-490.0704417093709 1:0.25 2:0.333333 3:0.30482315 4:2 5:0.056240952 
-500 1:0.3125 2:0.533333 3:0.74212219 4:2 5:0.056240952 
-500 1:0.375 2:0.533333 3:0.2021028 4:2 5:0.061658547 
-500 1:0.125 2:0.366667 3:0.87541284 4:3 5:0.26007283 
-500 1:0.125 2:0.5 3:0.59222222 4:2 5:0.043677193 
-500 1:0.0625 2:0.7 3:0.7684468 4:2 5:0.036705246 
-500 1:0.3125 2:0.666667 3:0.80074488 4:2 5:0.079004053 
-500 1:0.1875 2:0.7 3:0.44234985 4:2 5:0.062612014 
-500 1:0.1875 2:0.6 3:0.62911004 4:3 5:0.1145043 
-500 1:0.1875 2:0.333333 3:0.63058572 4:2 5:0.083314659 
-500 1:0.1875 2:0.6 3:0.71390422 4:2 5:0.083314659 
-500 1:0.25 2:0.6 3:0.28546099 4:3 5:0.087562554 
-500 1:0.25 2:0.6 3:0.26046717 4:3 5:0.15470216 
-500 1:0.25 2:0.533333 3:0.37763253 4:3 5:0.11442256 
-500 1:0.3125 2:0.6 3:0.010123507 4:3 5:0.13252847 
-500 1:0.3125 2:0.733333 3:0.95424175 4:3 5:0.13252847 
-500 1:0.1875 2:0.466667 3:0.87104743 4:3 5:0.13949719 
-500 1:0.25 2:0.633333 3:0.13436482 4:3 5:0.16577635 
-500 1:0.1875 2:0.633333 3:0.75871497 4:1 5:0.038242106 
-500 1:0.1875 2:0.733333 3:0.69655172 4:1 5:0.029769876 
-500 1:0.3125 2:0.4 3:0.58448753 4:1 5:0.093322187 
-500 1:0.235294 2:0.366667 3:0.43157424 4:1 5:0.033643448 
-500 1:0.25 2:0.733333 3:0.92363776 4:1 5:0.034925999 
-500 1:0.25 2:0.3 3:0.78703704 4:3 5:0.036880033 
-500 1:0.25 2:0.533333 3:0.78683693 4:2 5:0.043823974 
-490.2671083963342 1:0.125 2:0.566667 3:0.67207792 4:3 5:0.14058762 
-500 1:0.1875 2:0.733333 3:0.7869016 4:2 5:0.061434809 
-500 1:0.25 2:0.666667 3:0.34874841 4:3 5:0.13543062 
-500 1:0.25 2:0.666667 3:0.94314807 4:3 5:0.13543062 
-500 1:0.1875 2:0.566667 3:0.95967355 4:3 5:0.11854572 
-500 1:0.1875 2:0.466667 3:0.73068893 4:3 5:0.15020352 
-500 1:0.125 2:0.6 3:0.81188997 4:2 5:0.035485541 
-500 1:0.1875 2:0.533333 3:0.36804522 4:2 5:0.060142571 
-500 1:0.1875 2:0.633333 3:0.66182874 4:3 5:0.096822478 
-500 1:0.125 2:0.433333 3:0.34020101 4:2 5:0.072041411 
-500 1:0.1875 2:0.566667 3:0.40238253 4:3 5:0.10711986 
-500 1:0.125 2:0.533333 3:0.35984556 4:2 5:0.043718845 
-500 1:0.125 2:0.733333 3:0.11699779 4:3 5:0.034077526 
-500 1:0.266667 2:0.733333 3:0.76705049 4:2 5:0.043915084 
-500 1:0.25 2:0.4 3:0.54922701 4:2 5:0.034233384 
-500 1:0.125 2:0.666667 3:0.88989899 4:2 5:0.040096191 
-365.9770565688878 1:0.125 2:0.566667 3:0.67207792 4:3 5:0.14058762 
-500 1:0.125 2:0.533333 3:0.60743802 4:3 5:0.14477277 
-500 1:0.125 2:0.433333 3:0.35883905 4:2 5:0.037829572 
-500 1:0.266667 2:0.533333 3:0.6647671 4:2 5:0.083095542 
-399.8714047149979 1:0.125 2:0.566667 3:0.67207792 4:3 5:0.14058762 
-500 1:0.25 2:0.466667 3:0.36830521 4:3 5:0.076635427 
-500 1:0.1875 2:0.466667 3:0.52197071 4:3 5:0.071762446 
-500 1:0.125 2:0.366667 3:0.003145643 4:3 5:0.19476946 
-500 1:0.125 2:0.433333 3:0.061088296 4:2 5:0.065948766 
-500 1:0.1875 2:0.633333 3:0.48878394 4:3 5:0.13034309 
-500 1:0.25 2:0.566667 3:0.42134831 4:2 5:0.054037933 
-500 1:0.1875 2:0.5 3:0.1562753 4:3 5:0.066136982 
-500 1:0.1875 2:0.533333 3:0.43588825 4:3 5:0.14518273 
-500 1:0.375 2:0.4 3:0.38572285 4:3 5:0.091820777 
-500 1:0.125 2:0.4 3:0.37176471 4:3 5:0.065873711 
-500 1:0.3125 2:0.566667 3:0.14934114 4:3 5:0.02879196 
-500 1:0.1875 2:0.6 3:0.37729549 4:3 5:0.15327508 
