svm_type c_svc
kernel_type rbf
gamma 0.25
nr_class 2
total_sv 167
rho -3.75171
label 1 0
probA -0.464695
probB 0.0934738
nr_sv 82 85
SV
500 1:0.214286 2:0.227273 3:0.35714286 4:-9.6 
500 1:0.25 2:0.227273 3:0.14285714 4:-9.7 
500 1:0.258065 2:0.217391 3:0 4:-7.9 
500 1:0.166667 2:0.217391 3:0 4:-7.9 
500 1:0.285714 2:0.227273 3:0.21428571 4:-10.2 
500 1:0.107143 2:0.227273 3:0 4:-8.1 
500 1:0.357143 2:0.217391 3:0.38461538 4:-7 
500 1:0.148148 2:0.227273 3:0 4:-9.4 
212.378074696201 1:0.357143 2:0.227273 3:0.28571429 4:-11 
500 1:0.321429 2:0.227273 3:0.21428571 4:-5.8 
500 1:0.214286 2:0.227273 3:0.21428571 4:-5.8 
500 1:0.0769231 2:0.238095 3:0 4:-7.6 
74.61002780360826 1:0.222222 2:0.318182 3:0 4:-11.3 
500 1:0.285714 2:0.227273 3:0 4:-10.2 
500 1:0.266667 2:0.217391 3:0.4 4:-7.8 
500 1:0.206897 2:0.217391 3:0.42857143 4:-10.1 
500 1:0.258065 2:0.217391 3:0.375 4:-10.1 
500 1:0.2 2:0.217391 3:0.33333333 4:-10.1 
500 1:0.25 2:0.227273 3:0 4:-9.3 
500 1:0.296296 2:0.227273 3:0 4:-9.3 
500 1:0.25 2:0.227273 3:0 4:-9.3 
500 1:0.285714 2:0.227273 3:0 4:-9.7 
500 1:0.178571 2:0.227273 3:0 4:-9.7 
500 1:0.285714 2:0.227273 3:0 4:-9.7 
500 1:0.230769 2:0.238095 3:0 4:-5.7 
105.9425410468113 1:0.310345 2:0.227273 3:0 4:-11.3 
500 1:0.275862 2:0.227273 3:0 4:-11.3 
500 1:0.133333 2:0.217391 3:0 4:-11.3 
500 1:0.166667 2:0.304348 3:0.066666667 4:-7.4 
500 1:0.107143 2:0.227273 3:0 4:-10.3 
500 1:0.0714286 2:0.227273 3:0 4:-10.3 
500 1:0.0344828 2:0.363636 3:0.066666667 4:-10.3 
500 1:0.266667 2:0.217391 3:0.2 4:-11.1 
500 1:0.307692 2:0.238095 3:0.076923077 4:-8.4 
500 1:0.307692 2:0.238095 3:0.23076923 4:-8.4 
500 1:0.32 2:0.285714 3:0 4:-8.4 
500 1:0.307692 2:0.238095 3:0 4:-8.4 
500 1:0.346154 2:0.238095 3:0 4:-8.4 
500 1:0.192308 2:0.238095 3:0 4:-8.4 
500 1:0.307692 2:0.333333 3:0.15384615 4:-8.4 
500 1:0.347826 2:0.238095 3:0 4:-8.4 
500 1:0.307692 2:0.285714 3:0.30769231 4:-8.4 
500 1:0.384615 2:0.238095 3:0.15384615 4:-8.4 
500 1:0.241379 2:0.227273 3:0 4:-5.7 
500 1:0.28 2:0.238095 3:0.16666667 4:-8.4 
392.0272931237039 1:0.384615 2:0.333333 3:0.30769231 4:-8.4 
500 1:0.36 2:0.238095 3:0 4:-8.4 
500 1:0.3 2:0.26087 3:0 4:-9.6 
500 1:0.285714 2:0.227273 3:0.28571429 4:-9.7 
500 1:0.464286 2:0.227273 3:0 4:-7 
500 1:0.321429 2:0.227273 3:0 4:-7 
500 1:0.241379 2:0.227273 3:0 4:-7 
500 1:0.307692 2:0.238095 3:0 4:-8.4 
176.6835864018685 1:0.357143 2:0.318182 3:0.35714286 4:-9.5 
500 1:0.321429 2:0.272727 3:0 4:-5.7 
459.4055201810692 1:0.411765 2:0.227273 3:0 4:-5.7 
143.7742378737853 1:0.269231 2:0.333333 3:0.53846154 4:-8.4 
500 1:0.384615 2:0.238095 3:0.15384615 4:-8.4 
293.5965100124994 1:0.423077 2:0.238095 3:0.15384615 4:-8.4 
343.5509429485687 1:0.185185 2:0.238095 3:0.5 4:-10.2 
500 1:0.307692 2:0.238095 3:0 4:-10.2 
500 1:0.230769 2:0.238095 3:0.15384615 4:-8.4 
500 1:0.366667 2:0.217391 3:0 4:-7 
500 1:0.366667 2:0.217391 3:0 4:-7 
500 1:0.285714 2:0.227273 3:0 4:-9.7 
500 1:0.185185 2:0.227273 3:0.30769231 4:-9.7 
500 1:0.25 2:0.227273 3:0.071428571 4:-9.7 
500 1:0.259259 2:0.304348 3:0.25 4:-7 
500 1:0.178571 2:0.217391 3:0 4:-7 
500 1:0.4 2:0.217391 3:0.26666667 4:-7 
500 1:0.285714 2:0.181818 3:0 4:-9.7 
500 1:0.307692 2:0.238095 3:0.23076923 4:-8.4 
500 1:0.192308 2:0.238095 3:0 4:-8.4 
500 1:0.230769 2:0.238095 3:0 4:-8.4 
500 1:0.178571 2:0.227273 3:0 4:-9.3 
500 1:0.2 2:0.217391 3:0 4:-5.8 
182.8947544696356 1:0.307692 2:0.217391 3:0 4:-5.8 
170.0065615052434 1:0.142857 2:0.227273 3:0.35714286 4:-9.3 
22.1238848632125 1:0.285714 2:0.227273 3:0.28571429 4:-9.3 
500 1:0.285714 2:0.227273 3:0 4:-10.2 
500 1:0.137931 2:0.173913 3:0.42857143 4:-5.8 
500 1:0.137931 2:0.173913 3:0.42857143 4:-5.8 
-500 1:0.259259 2:0.272727 3:0.23076923 4:-9.3 
-124.6813475558463 1:0.357143 2:0.227273 3:0 4:-9.3 
-500 1:0.285714 2:0.227273 3:0 4:-8.8 
-500 1:0.375 2:0.25 3:0.25 4:-5.9 
-500 1:0.272727 2:0.25 3:0 4:-5.9 
-500 1:0.4 2:0.217391 3:0 4:-7 
-327.9178824559737 1:0.25 2:0.304348 3:0 4:-7 
-500 1:0.4 2:0.217391 3:0 4:-7 
-500 1:0.285714 2:0.227273 3:0 4:-6 
-500 1:0.133333 2:0.217391 3:0 4:-7.6 
-500 1:0.233333 2:0.217391 3:0.2 4:-7.6 
-494.7778582332099 1:0.1 2:0.217391 3:0 4:-7.6 
-500 1:0.333333 2:0.217391 3:0.33333333 4:-7.7 
-263.2984070371766 1:0.103448 2:0.217391 3:0.21428571 4:-11.4 
-500 1:0.233333 2:0.217391 3:0 4:-11.4 
-500 1:0.225806 2:0.173913 3:0.3125 4:-7.7 
-495.2232387158592 1:0.25 2:0.227273 3:0 4:-10.2 
-243.2252322021244 1:0.208333 2:0.25 3:0 4:-7.4 
-159.9669904030464 1:0.321429 2:0.227273 3:0 4:-9.3 
-500 1:0.178571 2:0.227273 3:0 4:-9.3 
-500 1:0.25 2:0.227273 3:0 4:-9.3 
-500 1:0.241379 2:0.227273 3:0 4:-9.3 
-500 1:0.142857 2:0.227273 3:0.28571429 4:-9.7 
-500 1:0.266667 2:0.217391 3:0 4:-7.8 
-318.622300414585 1:0.310345 2:0.227273 3:0.33333333 4:-7.4 
-108.7412457315785 1:0.296296 2:0.227273 3:0 4:-5.1 
-166.1113081366406 1:0.25 2:0.227273 3:0 4:-5.1 
-500 1:0.392857 2:0.227273 3:0.21428571 4:-7.4 
-46.58038908149922 1:0.357143 2:0.227273 3:0.57142857 4:-7.4 
-500 1:0.285714 2:0.227273 3:0.35714286 4:-5.8 
-500 1:0.307692 2:0.238095 3:0 4:-8.7 
-500 1:0.269231 2:0.238095 3:0 4:-8.7 
-500 1:0.346154 2:0.238095 3:0 4:-8.4 
-500 1:0.192308 2:0.238095 3:0 4:-8.4 
-500 1:0.230769 2:0.285714 3:0.15384615 4:-8.4 
-500 1:0.36 2:0.428571 3:0.41666667 4:-8.4 
-500 1:0.241379 2:0.227273 3:0.33333333 4:-10.2 
-500 1:0.192308 2:0.238095 3:0 4:-8.4 
-326.867925640657 1:0.25 2:0.227273 3:0 4:-7 
-500 1:0.346154 2:0.238095 3:0.15384615 4:-8.4 
-500 1:0.107143 2:0.227273 3:0.14285714 4:-10.2 
-500 1:0.142857 2:0.227273 3:0 4:-9.7 
-500 1:0.142857 2:0.227273 3:0.21428571 4:-10.2 
-500 1:0.307692 2:0.285714 3:0 4:-8.4 
-500 1:0.333333 2:0.238095 3:0 4:-8.4 
-500 1:0.25 2:0.227273 3:0.14285714 4:-9.7 
-500 1:0.357143 2:0.227273 3:0.071428571 4:-9.7 
-500 1:0.178571 2:0.227273 3:0 4:-11.1 
-500 1:0.307692 2:0.238095 3:0.15384615 4:-8.4 
-500 1:0.346154 2:0.238095 3:0 4:-8.4 
-500 1:0.192308 2:0.238095 3:0.30769231 4:-10.2 
-422.4331160716825 1:0.307692 2:0.380952 3:0 4:-8.4 
-500 1:0.148148 2:0.238095 3:0.5 4:-8.4 
-500 1:0.346154 2:0.227273 3:0.5 4:-10.2 
-500 1:0.178571 2:0.227273 3:0.28571429 4:-10.2 
-500 1:0.307692 2:0.238095 3:0.15384615 4:-8.4 
-500 1:0.230769 2:0.238095 3:0.30769231 4:-8.4 
-46.10520540130162 1:0.107143 2:0.227273 3:0 4:-11.1 
-500 1:0.307692 2:0.238095 3:0 4:-8.4 
-500 1:0.178571 2:0.227273 3:0 4:-11.1 
-500 1:0.285714 2:0.227273 3:0 4:-7 
-500 1:0.178571 2:0.227273 3:0.071428571 4:-9.7 
-500 1:0.346154 2:0.238095 3:0 4:-8.4 
-500 1:0.384615 2:0.238095 3:0 4:-8.4 
-500 1:0.357143 2:0.227273 3:0.14285714 4:-7 
-474.1368659273366 1:0.25 2:0.227273 3:0 4:-7 
-500 1:0.25 2:0.227273 3:0.21428571 4:-9.5 
-500 1:0.107143 2:0.227273 3:0 4:-9.7 
-500 1:0.25 2:0.227273 3:0.21428571 4:-9.7 
-357.8051655824118 1:0.178571 2:0.318182 3:0.14285714 4:-9.7 
-500 1:0.133333 2:0.217391 3:0 4:-5.8 
-38.34028073781274 1:0.178571 2:0.304348 3:0.53846154 4:-5.8 
-191.5753998015674 1:0.178571 2:0.304348 3:0.53846154 4:-5.8 
-500 1:0.178571 2:0.227273 3:0.21428571 4:-10.2 
-62.58159942605183 1:0.392857 2:0.318182 3:0 4:-10.2 
-500 1:0.166667 2:0.217391 3:0.33333333 4:-5.8 
-500 1:0.3 2:0.217391 3:0.26666667 4:-5.8 
-500 1:0.25 2:0.227273 3:0.071428571 4:-10.2 
-500 1:0.233333 2:0.217391 3:0 4:-5.8 
-500 1:0.266667 2:0.217391 3:0 4:-5.8 
-500 1:0.357143 2:0.227273 3:0 4:-10.2 
-408.0021763698471 1:0.333333 2:0.227273 3:0 4:-10.2 
-500 1:0.357143 2:0.227273 3:0 4:-10.2 
-500 1:0.314286 2:0.227273 3:0 4:-9.3 
-500 1:0.314286 2:0.227273 3:0 4:-9.3 
